svm_type c_svc
kernel_type rbf
gamma 10
nr_class 2
total_sv 68
rho 0.60099
label 1 -1
nr_sv 32 36
SV
28.58801810975167 1:0.4 2:0.40862745 3:0.4172549 4:0.42588235 5:0.4345098 6:0.44313725 7:0.45176471 8:0.46039216 9:0.46901961 10:0.47764706 11:0.48627451 12:0.49490196 13:0.50352941 14:0.51215686 15:0.52078431 16:0.52941176 17:0.53803922 18:0.54666667 19:0.55529412 20:0.56392157 21:0.57254902 22:0.58117647 23:0.58980392 24:0.59843137 25:0.60705882 26:0.61568627 27:0.62431373 28:0.63294118 29:0.64156863 30:0.65019608 31:0.65882353 
200 1:0.43921569 2:0.4496732 3:0.46013072 4:0.47058824 5:0.48104575 6:0.49150327 7:0.50196078 8:0.5124183 9:0.52287582 10:0.53333333 11:0.54379085 12:0.55424837 13:0.56470588 14:0.5751634 15:0.58562092 16:0.59607843 17:0.60653595 18:0.61699346 19:0.62745098 20:0.6379085 21:0.64836601 22:0.65882353 23:0.66928105 24:0.67973856 25:0.69019608 26:0.70065359 27:0.71111111 28:0.72156863 29:0.73202614 30:0.74248366 31:0.75294118 
200 1:0.36862745 2:0.38248366 3:0.39633987 4:0.41019608 5:0.42405229 6:0.4379085 7:0.45176471 8:0.46562092 9:0.47947712 10:0.49333333 11:0.50718954 12:0.52104575 13:0.53490196 14:0.54875817 15:0.56261438 16:0.57647059 17:0.5903268 18:0.60418301 19:0.61803922 20:0.63189542 21:0.64575163 22:0.65960784 23:0.67346405 24:0.68732026 25:0.70117647 26:0.71503268 27:0.72888889 28:0.7427451 29:0.75660131 30:0.77045752 31:0.78431373 
200 1:0.39607843 2:0.41215686 3:0.42823529 4:0.44431373 5:0.46039216 6:0.47647059 7:0.49254902 8:0.50862745 9:0.52470588 10:0.54078431 11:0.55686275 12:0.57294118 13:0.58901961 14:0.60509804 15:0.62117647 16:0.6372549 17:0.65333333 18:0.66941176 19:0.6854902 20:0.70156863 21:0.71764706 22:0.73372549 23:0.74980392 24:0.76588235 25:0.78196078 26:0.79803922 27:0.81411765 28:0.83019608 29:0.84627451 30:0.86235294 31:0.87843137 
132.1799270957465 1:0.40784314 2:0.42326797 3:0.43869281 4:0.45411765 5:0.46954248 6:0.48496732 7:0.50039216 8:0.51581699 9:0.53124183 10:0.54666667 11:0.5620915 12:0.57751634 13:0.59294118 14:0.60836601 15:0.62379085 16:0.63921569 17:0.65464052 18:0.67006536 19:0.6854902 20:0.70091503 21:0.71633987 22:0.73176471 23:0.74718954 24:0.76261438 25:0.77803922 26:0.79346405 27:0.80888889 28:0.82431373 29:0.83973856 30:0.8551634 31:0.87058824 
113.5029529362454 1:0.3254902 2:0.34784314 3:0.37019608 4:0.39254902 5:0.41490196 6:0.4372549 7:0.45960784 8:0.48196078 9:0.50431373 10:0.52666667 11:0.54901961 12:0.57137255 13:0.59372549 14:0.61607843 15:0.63843137 16:0.66078431 17:0.68313725 18:0.7054902 19:0.72784314 20:0.75019608 21:0.77254902 22:0.79490196 23:0.8172549 24:0.83960784 25:0.86196078 26:0.88431373 27:0.90666667 28:0.92901961 29:0.95137255 30:0.97372549 31:0.99607843 
198.8605760368652 1:0.3254902 2:0.34784314 3:0.37019608 4:0.39254902 5:0.41490196 6:0.4372549 7:0.45960784 8:0.48196078 9:0.50431373 10:0.52666667 11:0.54901961 12:0.57137255 13:0.59372549 14:0.61607843 15:0.63843137 16:0.66078431 17:0.68313725 18:0.7054902 19:0.72784314 20:0.75019608 21:0.77254902 22:0.79490196 23:0.8172549 24:0.83960784 25:0.86196078 26:0.88431373 27:0.90666667 28:0.92901961 29:0.95137255 30:0.97372549 31:0.99607843 
200 1:0.41176471 2:0.42352941 3:0.43529412 4:0.44705882 5:0.45882353 6:0.47058824 7:0.48235294 8:0.49411765 9:0.50588235 10:0.51764706 11:0.52941176 12:0.54117647 13:0.55294118 14:0.56470588 15:0.57647059 16:0.58823529 17:0.6 18:0.61176471 19:0.62352941 20:0.63529412 21:0.64705882 22:0.65882353 23:0.67058824 24:0.68235294 25:0.69411765 26:0.70588235 27:0.71764706 28:0.72941176 29:0.74117647 30:0.75294118 31:0.76470588 
200 1:0.32156863 2:0.34300654 3:0.36444444 4:0.38588235 5:0.40732026 6:0.42875817 7:0.45019608 8:0.47163399 9:0.4930719 10:0.5145098 11:0.53594771 12:0.55738562 13:0.57882353 14:0.60026144 15:0.62169935 16:0.64313725 17:0.66457516 18:0.68601307 19:0.70745098 20:0.72888889 21:0.7503268 22:0.77176471 23:0.79320261 24:0.81464052 25:0.83607843 26:0.85751634 27:0.87895425 28:0.90039216 29:0.92183007 30:0.94326797 31:0.96470588 
200 1:0.30980392 2:0.3303268 3:0.35084967 4:0.37137255 5:0.39189542 6:0.4124183 7:0.43294118 8:0.45346405 9:0.47398693 10:0.4945098 11:0.51503268 12:0.53555556 13:0.55607843 14:0.57660131 15:0.59712418 16:0.61764706 17:0.63816993 18:0.65869281 19:0.67921569 20:0.69973856 21:0.72026144 22:0.74078431 23:0.76130719 24:0.78183007 25:0.80235294 26:0.82287582 27:0.84339869 28:0.86392157 29:0.88444444 30:0.90496732 31:0.9254902 
200 1:0.42745098 2:0.43895425 3:0.45045752 4:0.46196078 5:0.47346405 6:0.48496732 7:0.49647059 8:0.50797386 9:0.51947712 10:0.53098039 11:0.54248366 12:0.55398693 13:0.5654902 14:0.57699346 15:0.58849673 16:0.6 17:0.61150327 18:0.62300654 19:0.6345098 20:0.64601307 21:0.65751634 22:0.66901961 23:0.68052288 24:0.69202614 25:0.70352941 26:0.71503268 27:0.72653595 28:0.73803922 29:0.74954248 30:0.76104575 31:0.77254902 
200 1:0.39607843 2:0.41189542 3:0.42771242 4:0.44352941 5:0.45934641 6:0.4751634 7:0.49098039 8:0.50679739 9:0.52261438 10:0.53843137 11:0.55424837 12:0.57006536 13:0.58588235 14:0.60169935 15:0.61751634 16:0.63333333 17:0.64915033 18:0.66496732 19:0.68078431 20:0.69660131 21:0.7124183 22:0.72823529 23:0.74405229 24:0.75986928 25:0.77568627 26:0.79150327 27:0.80732026 28:0.82313725 29:0.83895425 30:0.85477124 31:0.87058824 
200 1:0.32941176 2:0.34862745 3:0.36784314 4:0.38705882 5:0.40627451 6:0.4254902 7:0.44470588 8:0.46392157 9:0.48313725 10:0.50235294 11:0.52156863 12:0.54078431 13:0.56 14:0.57921569 15:0.59843137 16:0.61764706 17:0.63686275 18:0.65607843 19:0.67529412 20:0.6945098 21:0.71372549 22:0.73294118 23:0.75215686 24:0.77137255 25:0.79058824 26:0.80980392 27:0.82901961 28:0.84823529 29:0.86745098 30:0.88666667 31:0.90588235 
200 1:0.36078431 2:0.37764706 3:0.3945098 4:0.41137255 5:0.42823529 6:0.44509804 7:0.46196078 8:0.47882353 9:0.49568627 10:0.51254902 11:0.52941176 12:0.54627451 13:0.56313725 14:0.58 15:0.59686275 16:0.61372549 17:0.63058824 18:0.64745098 19:0.66431373 20:0.68117647 21:0.69803922 22:0.71490196 23:0.73176471 24:0.74862745 25:0.7654902 26:0.78235294 27:0.79921569 28:0.81607843 29:0.83294118 30:0.84980392 31:0.86666667 
200 1:0.35294118 2:0.37372549 3:0.3945098 4:0.41529412 5:0.43607843 6:0.45686275 7:0.47764706 8:0.49843137 9:0.51921569 10:0.54 11:0.56078431 12:0.58156863 13:0.60235294 14:0.62313725 15:0.64392157 16:0.66470588 17:0.6854902 18:0.70627451 19:0.72705882 20:0.74784314 21:0.76862745 22:0.78941176 23:0.81019608 24:0.83098039 25:0.85176471 26:0.87254902 27:0.89333333 28:0.91411765 29:0.93490196 30:0.95568627 31:0.97647059 
22.99937484846737 1:0.40784314 2:0.42732026 3:0.44679739 4:0.46627451 5:0.48575163 6:0.50522876 7:0.52470588 8:0.54418301 9:0.56366013 10:0.58313725 11:0.60261438 12:0.6220915 13:0.64156863 14:0.66104575 15:0.68052288 16:0.7 17:0.71947712 18:0.73895425 19:0.75843137 20:0.7779085 21:0.79738562 22:0.81686275 23:0.83633987 24:0.85581699 25:0.87529412 26:0.89477124 27:0.91424837 28:0.93372549 29:0.95320261 30:0.97267974 31:0.99215686 
194.3266321926841 1:0.43529412 2:0.44718954 3:0.45908497 4:0.47098039 5:0.48287582 6:0.49477124 7:0.50666667 8:0.51856209 9:0.53045752 10:0.54235294 11:0.55424837 12:0.56614379 13:0.57803922 14:0.58993464 15:0.60183007 16:0.61372549 17:0.62562092 18:0.63751634 19:0.64941176 20:0.66130719 21:0.67320261 22:0.68509804 23:0.69699346 24:0.70888889 25:0.72078431 26:0.73267974 27:0.74457516 28:0.75647059 29:0.76836601 30:0.78026144 31:0.79215686 
200 1:0.40392157 2:0.41333333 3:0.4227451 4:0.43215686 5:0.44156863 6:0.45098039 7:0.46039216 8:0.46980392 9:0.47921569 10:0.48862745 11:0.49803922 12:0.50745098 13:0.51686275 14:0.52627451 15:0.53568627 16:0.54509804 17:0.5545098 18:0.56392157 19:0.57333333 20:0.5827451 21:0.59215686 22:0.60156863 23:0.61098039 24:0.62039216 25:0.62980392 26:0.63921569 27:0.64862745 28:0.65803922 29:0.66745098 30:0.67686275 31:0.68627451 
3.429601815856008 1:0.40784314 2:0.4248366 3:0.44183007 4:0.45882353 5:0.47581699 6:0.49281046 7:0.50980392 8:0.52679739 9:0.54379085 10:0.56078431 11:0.57777778 12:0.59477124 13:0.61176471 14:0.62875817 15:0.64575163 16:0.6627451 17:0.67973856 18:0.69673203 19:0.71372549 20:0.73071895 21:0.74771242 22:0.76470588 23:0.78169935 24:0.79869281 25:0.81568627 26:0.83267974 27:0.8496732 28:0.86666667 29:0.88366013 30:0.90065359 31:0.91764706 
66.24707730330984 1:0.43529412 2:0.45071895 3:0.46614379 4:0.48156863 5:0.49699346 6:0.5124183 7:0.52784314 8:0.54326797 9:0.55869281 10:0.57411765 11:0.58954248 12:0.60496732 13:0.62039216 14:0.63581699 15:0.65124183 16:0.66666667 17:0.6820915 18:0.69751634 19:0.71294118 20:0.72836601 21:0.74379085 22:0.75921569 23:0.77464052 24:0.79006536 25:0.8054902 26:0.82091503 27:0.83633987 28:0.85176471 29:0.86718954 30:0.88261438 31:0.89803922 
72.23681803182754 1:0.37647059 2:0.39712418 3:0.41777778 4:0.43843137 5:0.45908497 6:0.47973856 7:0.50039216 8:0.52104575 9:0.54169935 10:0.56235294 11:0.58300654 12:0.60366013 13:0.62431373 14:0.64496732 15:0.66562092 16:0.68627451 17:0.7069281 18:0.7275817 19:0.74823529 20:0.76888889 21:0.78954248 22:0.81019608 23:0.83084967 24:0.85150327 25:0.87215686 26:0.89281046 27:0.91346405 28:0.93411765 29:0.95477124 30:0.97542484 31:0.99607843 
195.3275232020131 1:0.34509804 2:0.36352941 3:0.38196078 4:0.40039216 5:0.41882353 6:0.4372549 7:0.45568627 8:0.47411765 9:0.49254902 10:0.51098039 11:0.52941176 12:0.54784314 13:0.56627451 14:0.58470588 15:0.60313725 16:0.62156863 17:0.64 18:0.65843137 19:0.67686275 20:0.69529412 21:0.71372549 22:0.73215686 23:0.75058824 24:0.76901961 25:0.78745098 26:0.80588235 27:0.82431373 28:0.8427451 29:0.86117647 30:0.87960784 31:0.89803922 
140.27202980256 1:0.32156863 2:0.34222222 3:0.36287582 4:0.38352941 5:0.40418301 6:0.4248366 7:0.4454902 8:0.46614379 9:0.48679739 10:0.50745098 11:0.52810458 12:0.54875817 13:0.56941176 14:0.59006536 15:0.61071895 16:0.63137255 17:0.65202614 18:0.67267974 19:0.69333333 20:0.71398693 21:0.73464052 22:0.75529412 23:0.77594771 24:0.79660131 25:0.8172549 26:0.8379085 27:0.85856209 28:0.87921569 29:0.89986928 30:0.92052288 31:0.94117647 
200 1:0.41176471 2:0.42823529 3:0.44470588 4:0.46117647 5:0.47764706 6:0.49411765 7:0.51058824 8:0.52705882 9:0.54352941 10:0.56 11:0.57647059 12:0.59294118 13:0.60941176 14:0.62588235 15:0.64235294 16:0.65882353 17:0.67529412 18:0.69176471 19:0.70823529 20:0.72470588 21:0.74117647 22:0.75764706 23:0.77411765 24:0.79058824 25:0.80705882 26:0.82352941 27:0.84 28:0.85647059 29:0.87294118 30:0.88941176 31:0.90588235 
183.9663598295146 1:0.38431373 2:0.40352941 3:0.4227451 4:0.44196078 5:0.46117647 6:0.48039216 7:0.49960784 8:0.51882353 9:0.53803922 10:0.5572549 11:0.57647059 12:0.59568627 13:0.61490196 14:0.63411765 15:0.65333333 16:0.67254902 17:0.69176471 18:0.71098039 19:0.73019608 20:0.74941176 21:0.76862745 22:0.78784314 23:0.80705882 24:0.82627451 25:0.8454902 26:0.86470588 27:0.88392157 28:0.90313725 29:0.92235294 30:0.94156863 31:0.96078431 
10.64834066416153 1:0.47058824 2:0.48470588 3:0.49882353 4:0.51294118 5:0.52705882 6:0.54117647 7:0.55529412 8:0.56941176 9:0.58352941 10:0.59764706 11:0.61176471 12:0.62588235 13:0.64 14:0.65411765 15:0.66823529 16:0.68235294 17:0.69647059 18:0.71058824 19:0.72470588 20:0.73882353 21:0.75294118 22:0.76705882 23:0.78117647 24:0.79529412 25:0.80941176 26:0.82352941 27:0.83764706 28:0.85176471 29:0.86588235 30:0.88 31:0.89411765 
200 1:0.38431373 2:0.40300654 3:0.42169935 4:0.44039216 5:0.45908497 6:0.47777778 7:0.49647059 8:0.5151634 9:0.53385621 10:0.55254902 11:0.57124183 12:0.58993464 13:0.60862745 14:0.62732026 15:0.64601307 16:0.66470588 17:0.68339869 18:0.7020915 19:0.72078431 20:0.73947712 21:0.75816993 22:0.77686275 23:0.79555556 24:0.81424837 25:0.83294118 26:0.85163399 27:0.8703268 28:0.88901961 29:0.90771242 30:0.92640523 31:0.94509804 
49.14536680577556 1:0.48235294 2:0.49594771 3:0.50954248 4:0.52313725 5:0.53673203 6:0.5503268 7:0.56392157 8:0.57751634 9:0.59111111 10:0.60470588 11:0.61830065 12:0.63189542 13:0.6454902 14:0.65908497 15:0.67267974 16:0.68627451 17:0.69986928 18:0.71346405 19:0.72705882 20:0.74065359 21:0.75424837 22:0.76784314 23:0.78143791 24:0.79503268 25:0.80862745 26:0.82222222 27:0.83581699 28:0.84941176 29:0.86300654 30:0.87660131 31:0.89019608 
200 1:0.30588235 2:0.32797386 3:0.35006536 4:0.37215686 5:0.39424837 6:0.41633987 7:0.43843137 8:0.46052288 9:0.48261438 10:0.50470588 11:0.52679739 12:0.54888889 13:0.57098039 14:0.5930719 15:0.6151634 16:0.6372549 17:0.65934641 18:0.68143791 19:0.70352941 20:0.72562092 21:0.74771242 22:0.76980392 23:0.79189542 24:0.81398693 25:0.83607843 26:0.85816993 27:0.88026144 28:0.90235294 29:0.92444444 30:0.94653595 31:0.96862745 
200 1:0.29411765 2:0.3172549 3:0.34039216 4:0.36352941 5:0.38666667 6:0.40980392 7:0.43294118 8:0.45607843 9:0.47921569 10:0.50235294 11:0.5254902 12:0.54862745 13:0.57176471 14:0.59490196 15:0.61803922 16:0.64117647 17:0.66431373 18:0.68745098 19:0.71058824 20:0.73372549 21:0.75686275 22:0.78 23:0.80313725 24:0.82627451 25:0.84941176 26:0.87254902 27:0.89568627 28:0.91882353 29:0.94196078 30:0.96509804 31:0.98823529 
200 1:0.33333333 2:0.35215686 3:0.37098039 4:0.38980392 5:0.40862745 6:0.42745098 7:0.44627451 8:0.46509804 9:0.48392157 10:0.5027451 11:0.52156863 12:0.54039216 13:0.55921569 14:0.57803922 15:0.59686275 16:0.61568627 17:0.6345098 18:0.65333333 19:0.67215686 20:0.69098039 21:0.70980392 22:0.72862745 23:0.74745098 24:0.76627451 25:0.78509804 26:0.80392157 27:0.8227451 28:0.84156863 29:0.86039216 30:0.87921569 31:0.89803922 
44.92154085162219 1:0.36470588 2:0.38418301 3:0.40366013 4:0.42313725 5:0.44261438 6:0.4620915 7:0.48156863 8:0.50104575 9:0.52052288 10:0.54 11:0.55947712 12:0.57895425 13:0.59843137 14:0.6179085 15:0.63738562 16:0.65686275 17:0.67633987 18:0.69581699 19:0.71529412 20:0.73477124 21:0.75424837 22:0.77372549 23:0.79320261 24:0.81267974 25:0.83215686 26:0.85163399 27:0.87111111 28:0.89058824 29:0.91006536 30:0.92954248 31:0.94901961 
-57.36038185532438 1:0.40392157 2:0.41647059 3:0.42901961 4:0.44156863 5:0.45411765 6:0.46666667 7:0.47921569 8:0.49176471 9:0.50431373 10:0.51686275 11:0.52941176 12:0.54196078 13:0.5545098 14:0.56705882 15:0.57960784 16:0.59215686 17:0.60470588 18:0.6172549 19:0.62980392 20:0.64235294 21:0.65490196 22:0.66745098 23:0.68 24:0.69254902 25:0.70509804 26:0.71764706 27:0.73019608 28:0.7427451 29:0.75529412 30:0.76784314 31:0.78039216 
-1.524419661030517 1:0.34509804 2:0.3530719 3:0.36104575 4:0.36901961 5:0.37699346 6:0.38496732 7:0.39294118 8:0.40091503 9:0.40888889 10:0.41686275 11:0.4248366 12:0.43281046 13:0.44078431 14:0.44875817 15:0.45673203 16:0.46470588 17:0.47267974 18:0.48065359 19:0.48862745 20:0.49660131 21:0.50457516 22:0.51254902 23:0.52052288 24:0.52849673 25:0.53647059 26:0.54444444 27:0.5524183 28:0.56039216 29:0.56836601 30:0.57633987 31:0.58431373 
-0.2085955375484023 1:0.37254902 2:0.37738562 3:0.38222222 4:0.38705882 5:0.39189542 6:0.39673203 7:0.40156863 8:0.40640523 9:0.41124183 10:0.41607843 11:0.42091503 12:0.42575163 13:0.43058824 14:0.43542484 15:0.44026144 16:0.44509804 17:0.44993464 18:0.45477124 19:0.45960784 20:0.46444444 21:0.46928105 22:0.47411765 23:0.47895425 24:0.48379085 25:0.48862745 26:0.49346405 27:0.49830065 28:0.50313725 29:0.50797386 30:0.51281046 31:0.51764706 
-200 1:0.3372549 2:0.35529412 3:0.37333333 4:0.39137255 5:0.40941176 6:0.42745098 7:0.4454902 8:0.46352941 9:0.48156863 10:0.49960784 11:0.51764706 12:0.53568627 13:0.55372549 14:0.57176471 15:0.58980392 16:0.60784314 17:0.62588235 18:0.64392157 19:0.66196078 20:0.68 21:0.69803922 22:0.71607843 23:0.73411765 24:0.75215686 25:0.77019608 26:0.78823529 27:0.80627451 28:0.82431373 29:0.84235294 30:0.86039216 31:0.87843137 
-200 1:0.37254902 2:0.39320261 3:0.41385621 4:0.4345098 5:0.4551634 6:0.47581699 7:0.49647059 8:0.51712418 9:0.53777778 10:0.55843137 11:0.57908497 12:0.59973856 13:0.62039216 14:0.64104575 15:0.66169935 16:0.68235294 17:0.70300654 18:0.72366013 19:0.74431373 20:0.76496732 21:0.78562092 22:0.80627451 23:0.8269281 24:0.8475817 25:0.86823529 26:0.88888889 27:0.90954248 28:0.93019608 29:0.95084967 30:0.97150327 31:0.99215686 
-200 1:0.30980392 2:0.33176471 3:0.35372549 4:0.37568627 5:0.39764706 6:0.41960784 7:0.44156863 8:0.46352941 9:0.4854902 10:0.50745098 11:0.52941176 12:0.55137255 13:0.57333333 14:0.59529412 15:0.6172549 16:0.63921569 17:0.66117647 18:0.68313725 19:0.70509804 20:0.72705882 21:0.74901961 22:0.77098039 23:0.79294118 24:0.81490196 25:0.83686275 26:0.85882353 27:0.88078431 28:0.9027451 29:0.92470588 30:0.94666667 31:0.96862745 
-200 1:0.34509804 2:0.3627451 3:0.38039216 4:0.39803922 5:0.41568627 6:0.43333333 7:0.45098039 8:0.46862745 9:0.48627451 10:0.50392157 11:0.52156863 12:0.53921569 13:0.55686275 14:0.5745098 15:0.59215686 16:0.60980392 17:0.62745098 18:0.64509804 19:0.6627451 20:0.68039216 21:0.69803922 22:0.71568627 23:0.73333333 24:0.75098039 25:0.76862745 26:0.78627451 27:0.80392157 28:0.82156863 29:0.83921569 30:0.85686275 31:0.8745098 
-200 1:0.4 2:0.41594771 3:0.43189542 4:0.44784314 5:0.46379085 6:0.47973856 7:0.49568627 8:0.51163399 9:0.5275817 10:0.54352941 11:0.55947712 12:0.57542484 13:0.59137255 14:0.60732026 15:0.62326797 16:0.63921569 17:0.6551634 18:0.67111111 19:0.68705882 20:0.70300654 21:0.71895425 22:0.73490196 23:0.75084967 24:0.76679739 25:0.7827451 26:0.79869281 27:0.81464052 28:0.83058824 29:0.84653595 30:0.86248366 31:0.87843137 
-200 1:0.35294118 2:0.37228758 3:0.39163399 4:0.41098039 5:0.4303268 6:0.4496732 7:0.46901961 8:0.48836601 9:0.50771242 10:0.52705882 11:0.54640523 12:0.56575163 13:0.58509804 14:0.60444444 15:0.62379085 16:0.64313725 17:0.66248366 18:0.68183007 19:0.70117647 20:0.72052288 21:0.73986928 22:0.75921569 23:0.77856209 24:0.7979085 25:0.8172549 26:0.83660131 27:0.85594771 28:0.87529412 29:0.89464052 30:0.91398693 31:0.93333333 
-200 1:0.43921569 2:0.45045752 3:0.46169935 4:0.47294118 5:0.48418301 6:0.49542484 7:0.50666667 8:0.5179085 9:0.52915033 10:0.54039216 11:0.55163399 12:0.56287582 13:0.57411765 14:0.58535948 15:0.59660131 16:0.60784314 17:0.61908497 18:0.6303268 19:0.64156863 20:0.65281046 21:0.66405229 22:0.67529412 23:0.68653595 24:0.69777778 25:0.70901961 26:0.72026144 27:0.73150327 28:0.7427451 29:0.75398693 30:0.76522876 31:0.77647059 
-200 1:0.42745098 2:0.43895425 3:0.45045752 4:0.46196078 5:0.47346405 6:0.48496732 7:0.49647059 8:0.50797386 9:0.51947712 10:0.53098039 11:0.54248366 12:0.55398693 13:0.5654902 14:0.57699346 15:0.58849673 16:0.6 17:0.61150327 18:0.62300654 19:0.6345098 20:0.64601307 21:0.65751634 22:0.66901961 23:0.68052288 24:0.69202614 25:0.70352941 26:0.71503268 27:0.72653595 28:0.73803922 29:0.74954248 30:0.76104575 31:0.77254902 
-200 1:0.39215686 2:0.40862745 3:0.42509804 4:0.44156863 5:0.45803922 6:0.4745098 7:0.49098039 8:0.50745098 9:0.52392157 10:0.54039216 11:0.55686275 12:0.57333333 13:0.58980392 14:0.60627451 15:0.6227451 16:0.63921569 17:0.65568627 18:0.67215686 19:0.68862745 20:0.70509804 21:0.72156863 22:0.73803922 23:0.7545098 24:0.77098039 25:0.78745098 26:0.80392157 27:0.82039216 28:0.83686275 29:0.85333333 30:0.86980392 31:0.88627451 
-200 1:0.42352941 2:0.4351634 3:0.44679739 4:0.45843137 5:0.47006536 6:0.48169935 7:0.49333333 8:0.50496732 9:0.51660131 10:0.52823529 11:0.53986928 12:0.55150327 13:0.56313725 14:0.57477124 15:0.58640523 16:0.59803922 17:0.6096732 18:0.62130719 19:0.63294118 20:0.64457516 21:0.65620915 22:0.66784314 23:0.67947712 24:0.69111111 25:0.7027451 26:0.71437908 27:0.72601307 28:0.73764706 29:0.74928105 30:0.76091503 31:0.77254902 
-200 1:0.30588235 2:0.3275817 3:0.34928105 4:0.37098039 5:0.39267974 6:0.41437908 7:0.43607843 8:0.45777778 9:0.47947712 10:0.50117647 11:0.52287582 12:0.54457516 13:0.56627451 14:0.58797386 15:0.6096732 16:0.63137255 17:0.6530719 18:0.67477124 19:0.69647059 20:0.71816993 21:0.73986928 22:0.76156863 23:0.78326797 24:0.80496732 25:0.82666667 26:0.84836601 27:0.87006536 28:0.89176471 29:0.91346405 30:0.9351634 31:0.95686275 
-31.00517050654566 1:0.34117647 2:0.35895425 3:0.37673203 4:0.3945098 5:0.41228758 6:0.43006536 7:0.44784314 8:0.46562092 9:0.48339869 10:0.50117647 11:0.51895425 12:0.53673203 13:0.5545098 14:0.57228758 15:0.59006536 16:0.60784314 17:0.62562092 18:0.64339869 19:0.66117647 20:0.67895425 21:0.69673203 22:0.7145098 23:0.73228758 24:0.75006536 25:0.76784314 26:0.78562092 27:0.80339869 28:0.82117647 29:0.83895425 30:0.85673203 31:0.8745098 
-200 1:0.32156863 2:0.34261438 3:0.36366013 4:0.38470588 5:0.40575163 6:0.42679739 7:0.44784314 8:0.46888889 9:0.48993464 10:0.51098039 11:0.53202614 12:0.5530719 13:0.57411765 14:0.5951634 15:0.61620915 16:0.6372549 17:0.65830065 18:0.67934641 19:0.70039216 20:0.72143791 21:0.74248366 22:0.76352941 23:0.78457516 24:0.80562092 25:0.82666667 26:0.84771242 27:0.86875817 28:0.88980392 29:0.91084967 30:0.93189542 31:0.95294118 
-200 1:0.30588235 2:0.32810458 3:0.3503268 4:0.37254902 5:0.39477124 6:0.41699346 7:0.43921569 8:0.46143791 9:0.48366013 10:0.50588235 11:0.52810458 12:0.5503268 13:0.57254902 14:0.59477124 15:0.61699346 16:0.63921569 17:0.66143791 18:0.68366013 19:0.70588235 20:0.72810458 21:0.7503268 22:0.77254902 23:0.79477124 24:0.81699346 25:0.83921569 26:0.86143791 27:0.88366013 28:0.90588235 29:0.92810458 30:0.9503268 31:0.97254902 
-51.4199949616065 1:0.45098039 2:0.45921569 3:0.46745098 4:0.47568627 5:0.48392157 6:0.49215686 7:0.50039216 8:0.50862745 9:0.51686275 10:0.52509804 11:0.53333333 12:0.54156863 13:0.54980392 14:0.55803922 15:0.56627451 16:0.5745098 17:0.5827451 18:0.59098039 19:0.59921569 20:0.60745098 21:0.61568627 22:0.62392157 23:0.63215686 24:0.64039216 25:0.64862745 26:0.65686275 27:0.66509804 28:0.67333333 29:0.68156863 30:0.68980392 31:0.69803922 
-100.8162350034877 1:0.37254902 2:0.3854902 3:0.39843137 4:0.41137255 5:0.42431373 6:0.4372549 7:0.45019608 8:0.46313725 9:0.47607843 10:0.48901961 11:0.50196078 12:0.51490196 13:0.52784314 14:0.54078431 15:0.55372549 16:0.56666667 17:0.57960784 18:0.59254902 19:0.6054902 20:0.61843137 21:0.63137255 22:0.64431373 23:0.6572549 24:0.67019608 25:0.68313725 26:0.69607843 27:0.70901961 28:0.72196078 29:0.73490196 30:0.74784314 31:0.76078431 
-0.1913156636400179 1:0.26666667 2:0.2724183 3:0.27816993 4:0.28392157 5:0.2896732 6:0.29542484 7:0.30117647 8:0.3069281 9:0.31267974 10:0.31843137 11:0.32418301 12:0.32993464 13:0.33568627 14:0.34143791 15:0.34718954 16:0.35294118 17:0.35869281 18:0.36444444 19:0.37019608 20:0.37594771 21:0.38169935 22:0.38745098 23:0.39320261 24:0.39895425 25:0.40470588 26:0.41045752 27:0.41620915 28:0.42196078 29:0.42771242 30:0.43346405 31:0.43921569 
-200 1:0.45098039 2:0.46588235 3:0.48078431 4:0.49568627 5:0.51058824 6:0.5254902 7:0.54039216 8:0.55529412 9:0.57019608 10:0.58509804 11:0.6 12:0.61490196 13:0.62980392 14:0.64470588 15:0.65960784 16:0.6745098 17:0.68941176 18:0.70431373 19:0.71921569 20:0.73411765 21:0.74901961 22:0.76392157 23:0.77882353 24:0.79372549 25:0.80862745 26:0.82352941 27:0.83843137 28:0.85333333 29:0.86823529 30:0.88313725 31:0.89803922 
-65.76195002493357 1:0.29019608 2:0.31359477 3:0.33699346 4:0.36039216 5:0.38379085 6:0.40718954 7:0.43058824 8:0.45398693 9:0.47738562 10:0.50078431 11:0.52418301 12:0.5475817 13:0.57098039 14:0.59437908 15:0.61777778 16:0.64117647 17:0.66457516 18:0.68797386 19:0.71137255 20:0.73477124 21:0.75816993 22:0.78156863 23:0.80496732 24:0.82836601 25:0.85176471 26:0.8751634 27:0.89856209 28:0.92196078 29:0.94535948 30:0.96875817 31:0.99215686 
-200 1:0.38823529 2:0.40627451 3:0.42431373 4:0.44235294 5:0.46039216 6:0.47843137 7:0.49647059 8:0.5145098 9:0.53254902 10:0.55058824 11:0.56862745 12:0.58666667 13:0.60470588 14:0.6227451 15:0.64078431 16:0.65882353 17:0.67686275 18:0.69490196 19:0.71294118 20:0.73098039 21:0.74901961 22:0.76705882 23:0.78509804 24:0.80313725 25:0.82117647 26:0.83921569 27:0.8572549 28:0.87529412 29:0.89333333 30:0.91137255 31:0.92941176 
-0.1788985370457477 1:0.16862745 2:0.18352941 3:0.19843137 4:0.21333333 5:0.22823529 6:0.24313725 7:0.25803922 8:0.27294118 9:0.28784314 10:0.3027451 11:0.31764706 12:0.33254902 13:0.34745098 14:0.36235294 15:0.3772549 16:0.39215686 17:0.40705882 18:0.42196078 19:0.43686275 20:0.45176471 21:0.46666667 22:0.48156863 23:0.49647059 24:0.51137255 25:0.52627451 26:0.54117647 27:0.55607843 28:0.57098039 29:0.58588235 30:0.60078431 31:0.61568627 
-200 1:0.31372549 2:0.33660131 3:0.35947712 4:0.38235294 5:0.40522876 6:0.42810458 7:0.45098039 8:0.47385621 9:0.49673203 10:0.51960784 11:0.54248366 12:0.56535948 13:0.58823529 14:0.61111111 15:0.63398693 16:0.65686275 17:0.67973856 18:0.70261438 19:0.7254902 20:0.74836601 21:0.77124183 22:0.79411765 23:0.81699346 24:0.83986928 25:0.8627451 26:0.88562092 27:0.90849673 28:0.93137255 29:0.95424837 30:0.97712418 31:1 
-200 1:0.37254902 2:0.39254902 3:0.41254902 4:0.43254902 5:0.45254902 6:0.47254902 7:0.49254902 8:0.51254902 9:0.53254902 10:0.55254902 11:0.57254902 12:0.59254902 13:0.61254902 14:0.63254902 15:0.65254902 16:0.67254902 17:0.69254902 18:0.71254902 19:0.73254902 20:0.75254902 21:0.77254902 22:0.79254902 23:0.81254902 24:0.83254902 25:0.85254902 26:0.87254902 27:0.89254902 28:0.91254902 29:0.93254902 30:0.95254902 31:0.97254902 
-200 1:0.39607843 2:0.40575163 3:0.41542484 4:0.42509804 5:0.43477124 6:0.44444444 7:0.45411765 8:0.46379085 9:0.47346405 10:0.48313725 11:0.49281046 12:0.50248366 13:0.51215686 14:0.52183007 15:0.53150327 16:0.54117647 17:0.55084967 18:0.56052288 19:0.57019608 20:0.57986928 21:0.58954248 22:0.59921569 23:0.60888889 24:0.61856209 25:0.62823529 26:0.6379085 27:0.6475817 28:0.6572549 29:0.6669281 30:0.67660131 31:0.68627451 
-200 1:0.40392157 2:0.41947712 3:0.43503268 4:0.45058824 5:0.46614379 6:0.48169935 7:0.4972549 8:0.51281046 9:0.52836601 10:0.54392157 11:0.55947712 12:0.57503268 13:0.59058824 14:0.60614379 15:0.62169935 16:0.6372549 17:0.65281046 18:0.66836601 19:0.68392157 20:0.69947712 21:0.71503268 22:0.73058824 23:0.74614379 24:0.76169935 25:0.7772549 26:0.79281046 27:0.80836601 28:0.82392157 29:0.83947712 30:0.85503268 31:0.87058824 
-0.2510975244525975 1:0.18823529 2:0.19764706 3:0.20705882 4:0.21647059 5:0.22588235 6:0.23529412 7:0.24470588 8:0.25411765 9:0.26352941 10:0.27294118 11:0.28235294 12:0.29176471 13:0.30117647 14:0.31058824 15:0.32 16:0.32941176 17:0.33882353 18:0.34823529 19:0.35764706 20:0.36705882 21:0.37647059 22:0.38588235 23:0.39529412 24:0.40470588 25:0.41411765 26:0.42352941 27:0.43294118 28:0.44235294 29:0.45176471 30:0.46117647 31:0.47058824 
-19.1374480580151 1:0.34117647 2:0.35895425 3:0.37673203 4:0.3945098 5:0.41228758 6:0.43006536 7:0.44784314 8:0.46562092 9:0.48339869 10:0.50117647 11:0.51895425 12:0.53673203 13:0.5545098 14:0.57228758 15:0.59006536 16:0.60784314 17:0.62562092 18:0.64339869 19:0.66117647 20:0.67895425 21:0.69673203 22:0.7145098 23:0.73228758 24:0.75006536 25:0.76784314 26:0.78562092 27:0.80339869 28:0.82117647 29:0.83895425 30:0.85673203 31:0.8745098 
-161.537811524374 1:0.40784314 2:0.41973856 3:0.43163399 4:0.44352941 5:0.45542484 6:0.46732026 7:0.47921569 8:0.49111111 9:0.50300654 10:0.51490196 11:0.52679739 12:0.53869281 13:0.55058824 14:0.56248366 15:0.57437908 16:0.58627451 17:0.59816993 18:0.61006536 19:0.62196078 20:0.63385621 21:0.64575163 22:0.65764706 23:0.66954248 24:0.68143791 25:0.69333333 26:0.70522876 27:0.71712418 28:0.72901961 29:0.74091503 30:0.75281046 31:0.76470588 
-0.2948511999234118 1:0.10980392 2:0.13124183 3:0.15267974 4:0.17411765 5:0.19555556 6:0.21699346 7:0.23843137 8:0.25986928 9:0.28130719 10:0.3027451 11:0.32418301 12:0.34562092 13:0.36705882 14:0.38849673 15:0.40993464 16:0.43137255 17:0.45281046 18:0.47424837 19:0.49568627 20:0.51712418 21:0.53856209 22:0.56 23:0.58143791 24:0.60287582 25:0.62431373 26:0.64575163 27:0.66718954 28:0.68862745 29:0.71006536 30:0.73150327 31:0.75294118 
-0.05234717073024817 1:0.10588235 2:0.13084967 3:0.15581699 4:0.18078431 5:0.20575163 6:0.23071895 7:0.25568627 8:0.28065359 9:0.30562092 10:0.33058824 11:0.35555556 12:0.38052288 13:0.4054902 14:0.43045752 15:0.45542484 16:0.48039216 17:0.50535948 18:0.5303268 19:0.55529412 20:0.58026144 21:0.60522876 22:0.63019608 23:0.6551634 24:0.68013072 25:0.70509804 26:0.73006536 27:0.75503268 28:0.78 29:0.80496732 30:0.82993464 31:0.85490196 
-166.9116222977437 1:0.30588235 2:0.32601307 3:0.34614379 4:0.36627451 5:0.38640523 6:0.40653595 7:0.42666667 8:0.44679739 9:0.4669281 10:0.48705882 11:0.50718954 12:0.52732026 13:0.54745098 14:0.5675817 15:0.58771242 16:0.60784314 17:0.62797386 18:0.64810458 19:0.66823529 20:0.68836601 21:0.70849673 22:0.72862745 23:0.74875817 24:0.76888889 25:0.78901961 26:0.80915033 27:0.82928105 28:0.84941176 29:0.86954248 30:0.8896732 31:0.90980392 
-200 1:0.35686275 2:0.3772549 3:0.39764706 4:0.41803922 5:0.43843137 6:0.45882353 7:0.47921569 8:0.49960784 9:0.52 10:0.54039216 11:0.56078431 12:0.58117647 13:0.60156863 14:0.62196078 15:0.64235294 16:0.6627451 17:0.68313725 18:0.70352941 19:0.72392157 20:0.74431373 21:0.76470588 22:0.78509804 23:0.8054902 24:0.82588235 25:0.84627451 26:0.86666667 27:0.88705882 28:0.90745098 29:0.92784314 30:0.94823529 31:0.96862745 
-200 1:0.36470588 2:0.38183007 3:0.39895425 4:0.41607843 5:0.43320261 6:0.4503268 7:0.46745098 8:0.48457516 9:0.50169935 10:0.51882353 11:0.53594771 12:0.5530719 13:0.57019608 14:0.58732026 15:0.60444444 16:0.62156863 17:0.63869281 18:0.65581699 19:0.67294118 20:0.69006536 21:0.70718954 22:0.72431373 23:0.74143791 24:0.75856209 25:0.77568627 26:0.79281046 27:0.80993464 28:0.82705882 29:0.84418301 30:0.86130719 31:0.87843137 
